digraph Tree {
node [shape=box, style="filled", color="black", fontname="helvetica"] ;
edge [fontname="helvetica"] ;
0 [label="petal length (cm) <= 2.45\ngini = 0.666\nsamples = 120\nvalue = [41, 42, 37]\nclass = versicolor", fillcolor="#fcfffd"] ;
1 [label="gini = 0.0\nsamples = 41\nvalue = [41, 0, 0]\nclass = setosa", fillcolor="#e58139"] ;
0 -> 1 [labeldistance=2.5, labelangle=45, headlabel="True"] ;
2 [label="petal width (cm) <= 1.75\ngini = 0.498\nsamples = 79\nvalue = [0, 42, 37]\nclass = versicolor", fillcolor="#e7fcf0"] ;
0 -> 2 [labeldistance=2.5, labelangle=-45, headlabel="False"] ;
3 [label="petal length (cm) <= 5.35\ngini = 0.127\nsamples = 44\nvalue = [0, 41, 3]\nclass = versicolor", fillcolor="#47e78a"] ;
2 -> 3 ;
4 [label="gini = 0.089\nsamples = 43\nvalue = [0, 41, 2]\nclass = versicolor", fillcolor="#43e687"] ;
3 -> 4 ;
5 [label="gini = 0.0\nsamples = 1\nvalue = [0, 0, 1]\nclass = virginica", fillcolor="#8139e5"] ;
3 -> 5 ;
6 [label="petal length (cm) <= 4.85\ngini = 0.056\nsamples = 35\nvalue = [0, 1, 34]\nclass = virginica", fillcolor="#853fe6"] ;
2 -> 6 ;
7 [label="gini = 0.444\nsamples = 3\nvalue = [0, 1, 2]\nclass = virginica", fillcolor="#c09cf2"] ;
6 -> 7 ;
8 [label="gini = 0.0\nsamples = 32\nvalue = [0, 0, 32]\nclass = virginica", fillcolor="#8139e5"] ;
6 -> 8 ;
}